{"learner":{"attributes":{"best_iteration":"3","best_score":"0.5113830767206211"},"feature_names":["gm_delay","fm_delay","lc_delay","cog_delay","se_delay","num_delays","gm_dq","fm_dq","lc_dq","cog_dq","se_dq","composite_dq","nutrition_score","behaviour_score","parent_child_interaction_score","parent_mental_health_score","home_stimulation_score","autism_risk","adhd_risk","behavior_risk","caregiver_engagement","language_exposure","play_materials","safe_water"],"feature_types":[],"gradient_booster":{"model":{"cats":{"enc":[],"feature_segments":[],"sorted_idx":[]},"gbtree_model_param":{"num_parallel_tree":"1","num_trees":"24"},"iteration_indptr":[0,1,2,3,4,5,6,7,8,9,10,11,12,13,14,15,16,17,18,19,20,21,22,23,24],"tree_info":[0,0,0,0,0,0,0,0,0,0,0,0,0,0,0,0,0,0,0,0,0,0,0,0],"trees":[{"base_weights":[-2.0515328E-2,-1.2994698E-1,3.8783267E-1,-5.280709E-1,-3.0716038E-3,-2.198953E-1,7.663093E-1,-7.7452326E-1,7.267267E-2,-4.7196004E-1,1.4407663E-1,2.2250885E-1,-1.229246E-1,1.052652E0,-2.5956115E-2,-1.0857326E-1,2.894604E-2,2.9905176E-2,-9.0286694E-2,2.717715E-2,-2.833798E-2,-3.238665E-2,1.0260337E-1,6.265244E-2,1.3798903E-1],"categories":[],"categories_nodes":[],"categories_segments":[],"categories_sizes":[],"default_left":[0,0,0,0,0,0,0,0,0,0,0,0,0,0,0,0,0,0,0,0,0,0,0,0,0],"id":0,"left_children":[1,3,5,7,9,11,13,15,-1,17,19,21,-1,23,-1,-1,-1,-1,-1,-1,-1,-1,-1,-1,-1],"loss_changes":[1.0489262E1,9.34217E0,1.1582254E1,1.438566E1,9.815976E0,9.124296E0,9.321297E0,1.2845352E1,0E0,1.1559704E1,5.9885635E0,6.7540903E0,0E0,2.5209599E0,0E0,0E0,0E0,0E0,0E0,0E0,0E0,0E0,0E0,0E0,0E0],"parents":[2147483647,0,0,1,1,2,2,3,3,4,4,5,5,6,6,7,7,9,9,10,10,11,11,13,13],"right_children":[2,4,6,8,10,12,14,16,-1,18,20,22,-1,24,-1,-1,-1,-1,-1,-1,-1,-1,-1,-1,-1],"split_conditions":[1.2E1,8.609E1,9.114E1,1E0,3E0,8.467E1,1.0095E2,9E0,7.267267E-2,8.844E1,1.0536E2,1.4E1,-1.229246E-1,9.525E1,-2.5956115E-2,-1.0857326E-1,2.894604E-2,2.9905176E-2,-9.0286694E-2,2.717715E-2,-2.833798E-2,-3.238665E-2,1.0260337E-1,6.265244E-2,1.3798903E-1],"split_indices":[13,9,7,0,16,7,8,15,0,10,7,13,0,9,0,0,0,0,0,0,0,0,0,0,0],"split_type":[0,0,0,0,0,0,0,0,0,0,0,0,0,0,0,0,0,0,0,0,0,0,0,0,0],"sum_hessian":[2.3260378E2,1.8398112E2,4.8622643E1,4.3698112E1,1.4028302E2,1.8820755E1,2.9801886E1,3.6844337E1,6.8537736E0,3.2981133E1,1.0730189E2,1.3627358E1,5.193396E0,2.3278301E1,6.523585E0,2.8490566E1,8.353773E0,1.1933962E1,2.1047169E1,8.290094E1,2.4400944E1,8.466981E0,5.1603775E0,1.1377358E1,1.1900943E1],"tree_param":{"num_deleted":"0","num_feature":"24","num_nodes":"25","size_leaf_vector":"1"}},{"base_weights":[8.0123E-2,-2.6797733E-1,2.1242492E-1,5.810869E-3,-1.4025913E0,9.507843E-2,7.616764E-1,-5.3571E-1,5.0266266E-1,-1.7283617E-1,-7.751044E-2,3.1146005E-1,-2.2452894E-1,2.9439026E-2,1.2867196E0,4.54039E-2,-9.884311E-2,8.791388E-2,-6.445202E-2,-1.0586421E-2,5.888294E-2,-8.230687E-2,1.1592566E-2,5.6242507E-2,-5.3219546E-2,1.715656E-1,8.368888E-2],"categories":[],"categories_nodes":[],"categories_segments":[],"categories_sizes":[],"default_left":[0,0,0,0,0,0,0,0,0,0,0,0,0,0,0,0,0,0,0,0,0,0,0,0,0,0,0],"id":1,"left_children":[1,3,5,7,9,11,13,15,17,-1,-1,19,21,23,25,-1,-1,-1,-1,-1,-1,-1,-1,-1,-1,-1,-1],"loss_changes":[1.0836615E1,2.0169916E1,1.0894951E1,1.4605125E1,1.2402935E0,9.845242E0,1.1423613E1,1.20895E1,1.2790325E1,0E0,0E0,9.867151E0,1.1841964E1,4.3323927E0,1.9097576E0,0E0,0E0,0E0,0E0,0E0,0E0,0E0,0E0,0E0,0E0,0E0,0E0],"parents":[2147483647,0,0,1,1,2,2,3,3,4,4,5,5,6,6,7,7,8,8,11,11,12,12,13,13,14,14],"right_children":[2,4,6,8,10,12,14,16,18,-1,-1,20,22,24,26,-1,-1,-1,-1,-1,-1,-1,-1,-1,-1,-1,-1],"split_conditions":[1E0,9.985E1,1.0851E2,9.31E1,1.058E2,9.415E1,9.743E1,8.26E1,1E0,-1.7283617E-1,-7.751044E-2,5E0,9.17E1,8.34E1,1.1371E2,4.54039E-2,-9.884311E-2,8.791388E-2,-6.445202E-2,-1.0586421E-2,5.888294E-2,-8.230687E-2,1.1592566E-2,5.6242507E-2,-5.3219546E-2,1.715656E-1,8.368888E-2],"split_indices":[20,11,10,6,10,10,9,9,22,0,0,15,6,9,10,0,0,0,0,0,0,0,0,0,0,0,0],"split_type":[0,0,0,0,0,0,0,0,0,0,0,0,0,0,0,0,0,0,0,0,0,0,0,0,0,0,0],"sum_hessian":[2.3306458E2,6.3903145E1,1.6916142E2,5.228209E1,1.1621058E1,1.403492E2,2.8812222E1,2.4979076E1,2.730301E1,6.4947696E0,5.1262884E0,8.370468E1,5.6644524E1,1.2473065E1,1.6339157E1,7.8388023E0,1.7140274E1,2.0732718E1,6.570295E0,3.366753E1,5.003715E1,2.0023842E1,3.662068E1,6.399033E0,6.0740323E0,6.9233694E0,9.415788E0],"tree_param":{"num_deleted":"0","num_feature":"24","num_nodes":"27","size_leaf_vector":"1"}},{"base_weights":[2.8792866E-2,-5.49815E-3,1.172071E-1,-3.9006168E-1,1.3792989E-1,-1.1977131E-1,-1.6858155E-1,2.7412125E-1,-3.1858376E-1,-3.352548E-2,5.1161002E-2,-4.2027455E-2,4.458512E-2,-7.932416E-2,1.878228E-2],"categories":[],"categories_nodes":[],"categories_segments":[],"categories_sizes":[],"default_left":[0,0,0,0,0,0,0,0,0,0,0,0,0,0,0],"id":2,"left_children":[1,3,-1,5,7,9,-1,11,13,-1,-1,-1,-1,-1,-1],"loss_changes":[9.188019E0,1.265029E1,0E0,2.1616966E1,1.0474958E1,7.3309746E0,0E0,1.5596986E1,9.488083E0,0E0,0E0,0E0,0E0,0E0,0E0],"parents":[2147483647,0,0,1,1,3,3,4,4,5,5,7,7,8,8],"right_children":[2,4,-1,6,8,10,-1,12,14,-1,-1,-1,-1,-1,-1],"split_conditions":[1.0821E2,1E0,1.172071E-1,9.985E1,1E0,1.2E1,-1.6858155E-1,3E0,9.839E1,-3.352548E-2,5.1161002E-2,-4.2027455E-2,4.458512E-2,-7.932416E-2,1.878228E-2],"split_indices":[11,20,0,11,17,13,0,16,6,0,0,0,0,0,0],"split_type":[0,0,0,0,0,0,0,0,0,0,0,0,0,0,0],"sum_hessian":[2.3319894E2,2.2737436E2,5.8245826E0,6.1298748E1,1.660756E2,5.1622818E1,9.675932E0,1.282226E2,3.7853016E1,3.883714E1,1.2785676E1,2.5136204E1,1.0308639E2,1.9246626E1,1.860639E1],"tree_param":{"num_deleted":"0","num_feature":"24","num_nodes":"15","size_leaf_vector":"1"}},{"base_weights":[4.082971E-3,3.2951295E-1,-1.5028271E-1,-6.522527E-2,8.8975686E-1,-2.0729217E-1,8.001029E-2,-1.330692E-1,1.5370038E-1,1.3179055E0,-1.678682E-2,-1.199271E-1,-9.035386E-1,3.939086E-2,-7.857776E-2,1.5233713E-1,5.1769864E-2,-3.5268452E-2,1.0023832E-2,-5.837459E-5,-1.4854889E-1],"categories":[],"categories_nodes":[],"categories_segments":[],"categories_sizes":[],"default_left":[0,0,0,0,0,0,0,0,0,0,0,0,0,0,0,0,0,0,0,0,0],"id":3,"left_children":[1,3,5,7,9,11,-1,-1,13,15,-1,17,19,-1,-1,-1,-1,-1,-1,-1,-1],"loss_changes":[1.2073759E1,1.7157906E1,8.999308E0,1.302977E1,1.4724775E1,9.295834E0,0E0,0E0,9.418073E0,2.9785233E0,0E0,7.1338367E0,8.976235E0,0E0,0E0,0E0,0E0,0E0,0E0,0E0,0E0],"parents":[2147483647,0,0,1,1,2,2,3,3,4,4,5,5,8,8,9,9,11,11,12,12],"right_children":[2,4,6,8,10,12,-1,-1,14,16,-1,18,20,-1,-1,-1,-1,-1,-1,-1,-1],"split_conditions":[8.723E1,8.126E1,1.0693E2,8.214E1,9.979E1,1E0,8.001029E-2,-1.330692E-1,1E0,2E0,-1.678682E-2,9.564E1,9.389E1,3.939086E-2,-7.857776E-2,1.5233713E-1,5.1769864E-2,-3.5268452E-2,1.0023832E-2,-5.837459E-5,-1.4854889E-1],"split_indices":[10,10,11,7,7,4,0,0,22,12,0,11,10,0,0,0,0,0,0,0,0],"split_type":[0,0,0,0,0,0,0,0,0,0,0,0,0,0,0,0,0,0,0,0,0],"sum_hessian":[2.3835872E2,7.632262E1,1.620361E2,4.529331E1,3.1029308E1,1.5360397E2,8.432141E0,5.931114E0,3.9362194E1,2.191255E1,9.116757E0,1.3752017E2,1.6083796E1,3.1809715E1,7.552477E0,1.6716581E1,5.1959686E0,6.655586E1,7.096431E1,6.695716E0,9.388081E0],"tree_param":{"num_deleted":"0","num_feature":"24","num_nodes":"21","size_leaf_vector":"1"}},{"base_weights":[2.0677334E-2,1.6799471E-1,-2.4949515E-1,-3.2642275E-1,2.9149133E-1,4.3661255E-2,-7.460882E-1,2.0368738E-1,-1.0116483E0,1.3108936E-1,8.0861765E-1,-5.847119E-1,3.3916855E-1,-1.097233E0,6.9186813E-3,-4.5009594E-2,1.2652326E-1,-3.284812E-2,-1.4022772E-1,-2.7931726E-2,3.867666E-2,1.680048E-2,1.3802098E-1,2.0513483E-3,-1.1426804E-1,6.403547E-2,-3.0079547E-2,-1.4274259E-1,-4.080085E-2],"categories":[],"categories_nodes":[],"categories_segments":[],"categories_sizes":[],"default_left":[0,0,0,0,0,0,0,0,0,0,0,0,0,0,0,0,0,0,0,0,0,0,0,0,0,0,0,0,0],"id":4,"left_children":[1,3,5,7,9,11,13,15,17,19,21,23,25,27,-1,-1,-1,-1,-1,-1,-1,-1,-1,-1,-1,-1,-1,-1,-1],"loss_changes":[9.419126E0,9.44106E0,1.2193979E1,1.1489598E1,1.0096674E1,1.0127696E1,8.969107E0,1.3302188E1,3.1999245E0,1.0084333E1,1.0360085E1,5.923259E0,7.3247757E0,4.3724422E0,0E0,0E0,0E0,0E0,0E0,0E0,0E0,0E0,0E0,0E0,0E0,0E0,0E0,0E0,0E0],"parents":[2147483647,0,0,1,1,2,2,3,3,4,4,5,5,6,6,7,7,8,8,9,9,10,10,11,11,12,12,13,13],"right_children":[2,4,6,8,10,12,14,16,18,20,22,24,26,28,-1,-1,-1,-1,-1,-1,-1,-1,-1,-1,-1,-1,-1,-1,-1],"split_conditions":[9.945E1,8.302E1,9.944E1,6E0,3E0,9.373E1,1.1495E2,1E0,8.757E1,9.358E1,1.0423E2,1E0,2E0,1.0217E2,6.9186813E-3,-4.5009594E-2,1.2652326E-1,-3.284812E-2,-1.4022772E-1,-2.7931726E-2,3.867666E-2,1.680048E-2,1.3802098E-1,2.0513483E-3,-1.1426804E-1,6.403547E-2,-3.0079547E-2,-1.4274259E-1,-4.080085E-2],"split_indices":[8,7,7,15,12,11,8,21,11,9,7,12,12,11,0,0,0,0,0,0,0,0,0,0,0,0,0,0,0],"split_type":[0,0,0,0,0,0,0,0,0,0,0,0,0,0,0,0,0,0,0,0,0,0,0,0,0,0,0,0,0],"sum_hessian":[2.3460182E2,1.520639E2,8.2537926E1,3.006316E1,1.2200074E2,5.2473217E1,3.006471E1,1.7346306E1,1.2716855E1,9.407431E1,2.7926424E1,1.647076E1,3.6002457E1,2.0772152E1,9.29256E0,1.1091366E1,6.2549396E0,5.295866E0,7.4209886E0,3.607507E1,5.799924E1,1.3778297E1,1.4148127E1,8.362854E0,8.107906E0,2.4480562E1,1.15218935E1,1.331984E1,7.452311E0],"tree_param":{"num_deleted":"0","num_feature":"24","num_nodes":"29","size_leaf_vector":"1"}},{"base_weights":[-6.473155E-2,-1.0808963E-1,7.211495E-1,-2.337986E-2,-6.2061846E-1,1.272551E-1,1.354755E-2,1.7826984E-2,-1.0387995E-1,-9.7178733E-1,4.934215E-2,-8.102711E-3,3.7206203E-2,-1.5245667E-1,-3.4295976E-2],"categories":[],"categories_nodes":[],"categories_segments":[],"categories_sizes":[],"default_left":[0,0,0,0,0,0,0,0,0,0,0,0,0,0,0],"id":5,"left_children":[1,3,5,7,9,-1,-1,11,-1,13,-1,-1,-1,-1,-1],"loss_changes":[8.101487E0,9.712E0,3.8457575E0,8.106342E0,1.2895233E1,0E0,0E0,6.5692706E0,0E0,7.981844E0,0E0,0E0,0E0,0E0,0E0],"parents":[2147483647,0,0,1,1,2,2,3,3,4,4,7,7,9,9],"right_children":[2,4,6,8,10,-1,-1,12,-1,14,-1,-1,-1,-1,-1],"split_conditions":[1.2291E2,1.009E2,1.2496E2,1.1437E2,1.1424E2,1.272551E-1,1.354755E-2,9.728E1,-1.0387995E-1,5E0,4.934215E-2,-8.102711E-3,3.7206203E-2,-1.5245667E-1,-3.4295976E-2],"split_indices":[9,11,9,9,9,0,0,11,0,16,0,0,0,0,0],"split_type":[0,0,0,0,0,0,0,0,0,0,0,0,0,0,0],"sum_hessian":[2.3447191E2,2.2302954E2,1.1442369E1,1.9229329E2,3.0736248E1,5.289553E0,6.152816E0,1.8573827E2,6.555019E0,2.346673E1,7.269518E0,1.4581725E2,3.992102E1,1.1730455E1,1.1736274E1],"tree_param":{"num_deleted":"0","num_feature":"24","num_nodes":"15","size_leaf_vector":"1"}},{"base_weights":[1.0006884E-2,-2.8045383E-1,9.2619106E-2,4.8554766E-1,-6.0982615E-1,2.413917E-1,-3.9383656E-1,1.0373398E-1,-3.8034856E-2,-1.2220329E0,-1.6967763E-1,-1.5122712E-1,3.752353E-1,-1.4342676E-1,-6.144616E-2,-3.9201405E-2,-1.6595419E-1,1.7081162E-2,-9.012244E-2,4.1294605E-2,-4.655045E-2,2.936551E-3,6.6339724E-2,-8.7372795E-2,3.688119E-2],"categories":[],"categories_nodes":[],"categories_segments":[],"categories_sizes":[],"default_left":[0,0,0,0,0,0,0,0,0,0,0,0,0,0,0,0,0,0,0,0,0,0,0,0,0],"id":6,"left_children":[1,3,5,7,9,11,13,-1,-1,15,17,19,21,-1,23,-1,-1,-1,-1,-1,-1,-1,-1,-1,-1],"loss_changes":[5.6033874E0,1.3344522E1,1.3246143E1,8.090872E0,9.657633E0,7.4020157E0,1.4761324E1,0E0,0E0,4.851345E0,5.7481227E0,6.6193914E0,1.0398591E1,0E0,1.2060602E1,0E0,0E0,0E0,0E0,0E0,0E0,0E0,0E0,0E0,0E0],"parents":[2147483647,0,0,1,1,2,2,3,3,4,4,5,5,6,6,9,9,10,10,11,11,12,12,14,14],"right_children":[2,4,6,8,10,12,14,-1,-1,16,18,20,22,-1,24,-1,-1,-1,-1,-1,-1,-1,-1,-1,-1],"split_conditions":[3E0,8.379E1,1E0,9.798E1,7E0,1E0,8.739E1,1.0373398E-1,-3.8034856E-2,9.127E1,1E0,8.832E1,9.525E1,-1.4342676E-1,9.182E1,-3.9201405E-2,-1.6595419E-1,1.7081162E-2,-9.012244E-2,4.1294605E-2,-4.655045E-2,2.936551E-3,6.6339724E-2,-8.7372795E-2,3.688119E-2],"split_indices":[16,6,17,8,13,20,6,0,0,9,22,8,9,0,8,0,0,0,0,0,0,0,0,0,0],"split_type":[0,0,0,0,0,0,0,0,0,0,0,0,0,0,0,0,0,0,0,0,0,0,0,0,0],"sum_hessian":[2.3143474E2,5.0717953E1,1.8071678E2,1.51080065E1,3.5609947E1,1.3877809E2,4.193869E1,9.106742E0,6.0012646E0,1.4150907E1,2.145904E1,3.5248814E1,1.0352928E2,9.351646E0,3.2587044E1,5.538869E0,8.612038E0,1.5166493E1,6.292547E0,1.2498409E1,2.2750402E1,4.7553974E1,5.5975304E1,1.0927109E1,2.1659933E1],"tree_param":{"num_deleted":"0","num_feature":"24","num_nodes":"25","size_leaf_vector":"1"}},{"base_weights":[-1.5372981E-1,-1.8669806E-1,1.0478032E-1,-1.0498772E0,-1.3690169E-1,-1.5680873E-1,-3.5556495E-2,-5.1668316E-1,-3.5509028E-2,1.6240882E-2,-7.424269E-2,1.2820194E-2,-5.137035E-2],"categories":[],"categories_nodes":[],"categories_segments":[],"categories_sizes":[],"default_left":[0,0,0,0,0,0,0,0,0,0,0,0,0],"id":7,"left_children":[1,3,-1,5,7,-1,-1,9,11,-1,-1,-1,-1],"loss_changes":[9.036315E0,9.229538E0,0E0,3.6679802E0,7.9650955E0,0E0,0E0,6.8065414E0,1.2960349E1,0E0,0E0,0E0,0E0],"parents":[2147483647,0,0,1,1,3,3,4,4,7,7,8,8],"right_children":[2,4,-1,6,8,-1,-1,10,12,-1,-1,-1,-1],"split_conditions":[3E0,7.147E1,1.0478032E-1,6E0,3E0,-1.5680873E-1,-3.5556495E-2,8.379E1,1E0,1.6240882E-2,-7.424269E-2,1.2820194E-2,-5.137035E-2],"split_indices":[5,9,0,15,16,0,0,6,17,0,0,0,0],"split_type":[0,0,0,0,0,0,0,0,0,0,0,0,0],"sum_hessian":[2.2217969E2,2.1706828E2,5.111409E0,1.0744136E1,2.0632414E2,5.4316597E0,5.3124757E0,4.2613396E1,1.6371075E2,1.0701436E1,3.1911959E1,1.2250336E2,4.1207397E1],"tree_param":{"num_deleted":"0","num_feature":"24","num_nodes":"13","size_leaf_vector":"1"}},{"base_weights":[-5.2366946E-3,1.1539352E-1,-2.2027363E-1,1.6273119E-1,-8.625295E-2,-4.518166E-1,3.87657E-1,2.3179339E-1,-3.6845526E-1,2.3546599E-2,-6.7169684E-1,9.139601E-1,-2.2710708E-1,-6.633543E-2,2.9178096E-2,-1.150648E-1,7.040801E-3,-1.0560831E-1,7.447828E-2,-1.0915641E-1,1.43851265E-2,4.137897E-2,1.3659857E-1,7.4407617E-3,-4.79397E-2],"categories":[],"categories_nodes":[],"categories_segments":[],"categories_sizes":[],"default_left":[0,0,0,0,0,0,0,0,0,0,0,0,0,0,0,0,0,0,0,0,0,0,0,0,0],"id":8,"left_children":[1,3,5,7,-1,9,11,13,15,17,19,21,23,-1,-1,-1,-1,-1,-1,-1,-1,-1,-1,-1,-1],"loss_changes":[6.0019684E0,7.0035152E0,1.1878594E1,5.3039093E0,0E0,6.3575068E0,7.8015904E0,6.986261E0,5.831952E0,1.6480368E1,1.4373684E1,2.3387108E0,9.2009413E-1,0E0,0E0,0E0,0E0,0E0,0E0,0E0,0E0,0E0,0E0,0E0,0E0],"parents":[2147483647,0,0,1,1,2,2,3,3,5,5,6,6,7,7,8,8,9,9,10,10,11,11,12,12],"right_children":[2,4,6,8,-1,10,12,14,16,18,20,22,24,-1,-1,-1,-1,-1,-1,-1,-1,-1,-1,-1,-1],"split_conditions":[9.886E1,2E0,1E0,1E0,-8.625295E-2,8.63E1,4E0,7.018E1,9.163E1,5E0,7E0,1.1397E2,1.0621E2,-6.633543E-2,2.9178096E-2,-1.150648E-1,7.040801E-3,-1.0560831E-1,7.447828E-2,-1.0915641E-1,1.43851265E-2,4.137897E-2,1.3659857E-1,7.4407617E-3,-4.79397E-2],"split_indices":[8,18,18,4,0,10,15,8,7,15,16,8,8,0,0,0,0,0,0,0,0,0,0,0,0],"split_type":[0,0,0,0,0,0,0,0,0,0,0,0,0,0,0,0,0,0,0,0,0,0,0,0,0],"sum_hessian":[2.2939944E2,1.4725598E2,8.2143456E1,1.4125208E2,6.0039E0,5.9672676E1,2.247078E1,1.2549896E2,1.5753118E1,1.9154696E1,4.051798E1,1.1844203E1,1.0626575E1,7.250293E0,1.1824867E2,5.0789475E0,1.067417E1,7.4854064E0,1.166929E1,2.6524155E1,1.3993825E1,6.531952E0,5.3122516E0,5.1622186E0,5.4643574E0],"tree_param":{"num_deleted":"0","num_feature":"24","num_nodes":"25","size_leaf_vector":"1"}},{"base_weights":[8.034275E-3,8.678853E-2,-2.7692753E-1,-7.181335E-2,2.7791718E-1,-4.0435043E-1,4.0432535E-2,1.9702068E-1,-4.1286737E-1,-8.111852E-2,3.6946464E-1,-5.0555587E-2,-7.8396416E-1,-4.699631E-3,8.0131315E-2,-7.146756E-2,3.471708E-2,5.2551735E-2,-1.051619E-2,3.0327488E-2,-7.060673E-2,-1.390013E-1,-3.0551085E-2],"categories":[],"categories_nodes":[],"categories_segments":[],"categories_sizes":[],"default_left":[0,0,0,0,0,0,0,0,0,0,0,0,0,0,0,0,0,0,0,0,0,0,0],"id":9,"left_children":[1,3,5,7,9,11,-1,13,15,-1,17,19,21,-1,-1,-1,-1,-1,-1,-1,-1,-1,-1],"loss_changes":[5.2128177E0,5.5341873E0,4.5300283E0,9.269071E0,8.545263E0,5.718784E0,0E0,8.400543E0,1.0454357E1,0E0,5.7565145E0,5.609381E0,5.552738E0,0E0,0E0,0E0,0E0,0E0,0E0,0E0,0E0,0E0,0E0],"parents":[2147483647,0,0,1,1,2,2,3,3,4,4,5,5,7,7,8,8,10,10,11,11,12,12],"right_children":[2,4,6,8,10,12,-1,14,16,-1,18,20,22,-1,-1,-1,-1,-1,-1,-1,-1,-1,-1],"split_conditions":[1.0541E2,9.31E1,1.2144E2,9.681E1,7.597E1,9.444E1,4.0432535E-2,9.341E1,7E0,-8.111852E-2,1E0,9.762E1,1E0,-4.699631E-3,8.0131315E-2,-7.146756E-2,3.471708E-2,5.2551735E-2,-1.051619E-2,3.0327488E-2,-7.060673E-2,-1.390013E-1,-3.0551085E-2],"split_indices":[6,6,6,9,7,10,0,9,15,0,22,8,12,0,0,0,0,0,0,0,0,0,0],"split_type":[0,0,0,0,0,0,0,0,0,0,0,0,0,0,0,0,0,0,0,0,0,0,0],"sum_hessian":[2.302091E2,1.8090753E2,4.930157E1,9.92076E1,8.1699936E1,4.1875546E1,7.426026E0,5.571381E1,4.3493797E1,5.725477E0,7.597446E1,2.2261398E1,1.9614145E1,4.034463E1,1.5369178E1,3.117429E1,1.2319506E1,5.7094948E1,1.8879507E1,1.4806519E1,7.4548798E0,7.812703E0,1.1801442E1],"tree_param":{"num_deleted":"0","num_feature":"24","num_nodes":"23","size_leaf_vector":"1"}},{"base_weights":[3.0045347E-2,1.6316894E-1,-2.3107499E-1,7.5490005E-2,6.9154054E-1,-3.4906483E-1,9.0414755E-2,4.9374855E-1,-7.665427E-2,3.4362534E-1,1.1959749E-1,-1.5025364E-1,-1.152838E0,1.1986589E-2,1.0338701E-1,-5.8659654E-2,7.4736066E-3,-2.9184565E-2,1.1315372E-1,1.2675123E-2,-6.0498487E-2,-1.5261148E-1,-6.8944536E-2],"categories":[],"categories_nodes":[],"categories_segments":[],"categories_sizes":[],"default_left":[0,0,0,0,0,0,0,0,0,0,0,0,0,0,0,0,0,0,0,0,0,0,0],"id":10,"left_children":[1,3,5,7,9,11,-1,13,15,17,-1,19,21,-1,-1,-1,-1,-1,-1,-1,-1,-1,-1],"loss_changes":[8.38532E0,7.3434153E0,1.1232357E1,8.822196E0,3.5549917E0,1.1739799E1,0E0,7.338706E0,7.9249897E0,7.7290154E0,0E0,7.749915E0,1.4790058E0,0E0,0E0,0E0,0E0,0E0,0E0,0E0,0E0,0E0,0E0],"parents":[2147483647,0,0,1,1,2,2,3,3,4,4,5,5,7,7,8,8,9,9,11,11,12,12],"right_children":[2,4,6,8,10,12,-1,14,16,18,-1,20,22,-1,-1,-1,-1,-1,-1,-1,-1,-1,-1],"split_conditions":[9.945E1,9.669E1,1.1857E2,8.506E1,7E0,3E0,9.0414755E-2,9.069E1,4E0,1.0382E2,1.1959749E-1,9.861E1,9.622E1,1.1986589E-2,1.0338701E-1,-5.8659654E-2,7.4736066E-3,-2.9184565E-2,1.1315372E-1,1.2675123E-2,-6.0498487E-2,-1.5261148E-1,-6.8944536E-2],"split_indices":[8,8,9,10,16,12,0,11,13,7,0,7,6,0,0,0,0,0,0,0,0,0,0],"split_type":[0,0,0,0,0,0,0,0,0,0,0,0,0,0,0,0,0,0,0,0,0,0,0],"sum_hessian":[2.3914122E2,1.5863931E2,8.05019E1,1.3704132E2,2.1598007E1,7.354997E1,6.9519343E0,3.5954323E1,1.0108699E2,1.3777019E1,7.820988E0,5.991667E1,1.3633299E1,2.1968925E1,1.3985396E1,2.2482464E1,7.860453E1,7.974764E0,5.802254E0,3.768293E1,2.223374E1,6.2806726E0,7.352626E0],"tree_param":{"num_deleted":"0","num_feature":"24","num_nodes":"23","size_leaf_vector":"1"}},{"base_weights":[6.924883E-2,1.0429649E-1,-7.8921184E-2,3.2951647E-1,-3.829103E-3,-8.166859E-2,4.4192025E-1,-5.170691E-2,9.712093E-2,6.724612E-2,-2.7585542E-2,1.00903586E-1,-1.0000507E-2],"categories":[],"categories_nodes":[],"categories_segments":[],"categories_sizes":[],"default_left":[0,0,0,0,0,0,0,0,0,0,0,0,0],"id":11,"left_children":[1,3,-1,5,7,-1,9,11,-1,-1,-1,-1,-1],"loss_changes":[6.916796E0,5.337529E0,0E0,9.519921E0,7.007835E0,0E0,1.1005957E1,7.4277987E0,0E0,0E0,0E0,0E0,0E0],"parents":[2147483647,0,0,1,1,3,3,4,4,6,6,7,7],"right_children":[2,4,-1,6,8,-1,10,12,-1,-1,-1,-1,-1],"split_conditions":[2E0,8.723E1,-7.8921184E-2,7.614E1,1.2265E2,-8.166859E-2,9.571E1,8.461E1,9.712093E-2,6.724612E-2,-2.7585542E-2,1.00903586E-1,-1.0000507E-2],"split_indices":[18,10,0,7,7,0,11,11,0,0,0,0,0],"split_type":[0,0,0,0,0,0,0,0,0,0,0,0,0],"sum_hessian":[2.2615712E2,2.181302E2,8.026914E0,7.008963E1,1.4804057E2,5.7000017E0,6.4389626E1,1.4201414E2,6.0264235E0,4.8783943E1,1.5605682E1,5.318365E0,1.3669579E2],"tree_param":{"num_deleted":"0","num_feature":"24","num_nodes":"13","size_leaf_vector":"1"}},{"base_weights":[-4.348859E-2,-7.929551E-2,8.4324084E-2,2.5542581E-2,-3.8203806E-1,-1.0101707E-1,3.4466574E-1,-2.1605848E-1,-1.07622445E-1,-7.1067385E-2,1.9673135E-3,-1.8010097E-2,7.3314965E-2,-2.233746E-3,-9.892779E-2],"categories":[],"categories_nodes":[],"categories_segments":[],"categories_sizes":[],"default_left":[0,0,0,0,0,0,0,0,0,0,0,0,0,0,0],"id":12,"left_children":[1,3,-1,5,7,9,11,13,-1,-1,-1,-1,-1,-1,-1],"loss_changes":[7.412151E0,7.0962677E0,0E0,6.770801E0,6.391922E0,8.857815E0,9.833334E0,7.1154346E0,0E0,0E0,0E0,0E0,0E0,0E0,0E0],"parents":[2147483647,0,0,1,1,3,3,4,4,5,5,6,6,7,7],"right_children":[2,4,-1,6,8,10,12,14,-1,-1,-1,-1,-1,-1,-1],"split_conditions":[1.0766E2,1.0534E2,8.4324084E-2,9.721E1,3E0,3E0,9.302E1,1.0498E2,-1.07622445E-1,-7.1067385E-2,1.9673135E-3,-1.8010097E-2,7.3314965E-2,-2.233746E-3,-9.892779E-2],"split_indices":[11,9,0,9,12,15,6,6,0,0,0,0,0,0,0],"split_type":[0,0,0,0,0,0,0,0,0,0,0,0,0,0,0],"sum_hessian":[2.3033994E2,2.2227486E2,8.065082E0,1.6578131E2,5.6493534E1,1.191941E2,4.658721E1,4.665063E1,9.842901E0,1.8889074E1,1.0030503E2,2.004572E1,2.6541492E1,3.8127197E1,8.523433E0],"tree_param":{"num_deleted":"0","num_feature":"24","num_nodes":"15","size_leaf_vector":"1"}},{"base_weights":[1.8239889E-3,-8.161014E-2,3.926738E-1,-1.1775613E-1,1.01591766E-1,-2.2310004E-2,7.7885246E-1,-7.460971E-2,-1.01306036E-1,5.0800836E-1,-7.18077E-2,3.6469015E-1,1.2389002E-1,-8.9324936E-2,-2.1701644E-3,9.522279E-3,8.593478E-2,-7.923061E-4,6.784203E-2],"categories":[],"categories_nodes":[],"categories_segments":[],"categories_sizes":[],"default_left":[0,0,0,0,0,0,0,0,0,0,0,0,0,0,0,0,0,0,0],"id":13,"left_children":[1,3,5,7,-1,9,11,13,-1,15,-1,17,-1,-1,-1,-1,-1,-1,-1],"loss_changes":[7.369956E0,7.5088844E0,6.3886633E0,6.92478E0,0E0,7.7944136E0,3.4771576E0,7.5156016E0,0E0,1.6602547E0,0E0,1.4395895E0,0E0,0E0,0E0,0E0,0E0,0E0,0E0],"parents":[2147483647,0,0,1,1,2,2,3,3,5,5,6,6,7,7,9,9,11,11],"right_children":[2,4,6,8,-1,10,12,14,-1,16,-1,18,-1,-1,-1,-1,-1,-1,-1],"split_conditions":[1.0851E2,3E0,9.784E1,1.1825E2,1.01591766E-1,8.659E1,2E0,7.147E1,-1.01306036E-1,7E0,-7.18077E-2,9E0,1.2389002E-1,-8.9324936E-2,-2.1701644E-3,9.522279E-3,8.593478E-2,-7.923061E-4,6.784203E-2],"split_indices":[10,5,9,6,0,9,20,9,0,16,0,13,0,0,0,0,0,0,0],"split_type":[0,0,0,0,0,0,0,0,0,0,0,0,0,0,0,0,0,0,0],"sum_hessian":[2.2401875E2,1.8526228E2,3.875647E1,1.8021964E2,5.0426464E0,1.9135683E1,1.9620789E1,1.7296735E2,7.252292E0,1.1012067E1,8.123615E0,1.126873E1,8.352057E0,9.535941E0,1.6343141E2,5.6476827E0,5.3643847E0,5.5965385E0,5.672191E0],"tree_param":{"num_deleted":"0","num_feature":"24","num_nodes":"19","size_leaf_vector":"1"}},{"base_weights":[7.426396E-2,-5.58014E-1,1.3316657E-1,-2.6589276E-3,-9.507611E-2,3.2063708E-1,-5.248445E-2,-5.6307882E-2,4.9242103E-1,-1.5088758E-1,1.2113813E-1,-5.260789E-2,5.324499E-2,8.785459E-2,2.1044178E-2,8.303854E-3,-8.803216E-2],"categories":[],"categories_nodes":[],"categories_segments":[],"categories_sizes":[],"default_left":[0,0,0,0,0,0,0,0,0,0,0,0,0,0,0,0,0],"id":14,"left_children":[1,3,5,-1,-1,7,9,11,13,15,-1,-1,-1,-1,-1,-1,-1],"loss_changes":[8.568863E0,4.0718455E0,7.3067355E0,0E0,0E0,6.7852125E0,1.3377987E1,9.564227E0,7.631588E0,1.7020958E1,0E0,0E0,0E0,0E0,0E0,0E0,0E0],"parents":[2147483647,0,0,1,1,2,2,5,5,6,6,7,7,8,8,9,9],"right_children":[2,4,6,-1,-1,8,10,12,14,16,-1,-1,-1,-1,-1,-1,-1],"split_conditions":[7.512E1,1E0,1E0,-2.6589276E-3,-9.507611E-2,9.042E1,1.0749E2,9.659E1,9.958E1,9.858E1,1.2113813E-1,-5.260789E-2,5.324499E-2,8.785459E-2,2.1044178E-2,8.303854E-3,-8.803216E-2],"split_indices":[7,12,5,0,0,9,11,8,9,11,0,0,0,0,0,0,0],"split_type":[0,0,0,0,0,0,0,0,0,0,0,0,0,0,0,0,0],"sum_hessian":[2.2708568E2,1.8630194E1,2.0845547E2,8.371052E0,1.0259141E1,1.0335771E2,1.0509777E2,3.25674E1,7.079031E1,9.832306E1,6.7747054E0,1.8173328E1,1.43940735E1,2.8984758E1,4.1805553E1,7.511893E1,2.3204132E1],"tree_param":{"num_deleted":"0","num_feature":"24","num_nodes":"17","size_leaf_vector":"1"}},{"base_weights":[-5.49439E-4,-2.7246771E-2,8.331897E-2,5.752711E-2,-4.561418E-1,-3.1046733E-2,5.9065145E-1,-1.317595E-1,-1.8320586E-1,-3.3291064E-2,8.919171E-3,1.6676992E-2,1.0982841E-1,7.032566E-3,-1.15735404E-1],"categories":[],"categories_nodes":[],"categories_segments":[],"categories_sizes":[],"default_left":[0,0,0,0,0,0,0,0,0,0,0,0,0,0,0],"id":15,"left_children":[1,3,-1,5,7,9,11,-1,13,-1,-1,-1,-1,-1,-1],"loss_changes":[5.1276836E0,8.14162E0,0E0,8.860571E0,8.445917E0,5.8923345E0,5.568061E0,0E0,7.2980375E0,0E0,0E0,0E0,0E0,0E0,0E0],"parents":[2147483647,0,0,1,1,3,3,4,4,5,5,6,6,8,8],"right_children":[2,4,-1,6,8,10,12,-1,14,-1,-1,-1,-1,-1,-1],"split_conditions":[3E0,1E0,8.331897E-2,1.3E1,8.325E1,1E0,1.0259E2,-1.317595E-1,1.0385E2,-3.3291064E-2,8.919171E-3,1.6676992E-2,1.0982841E-1,7.032566E-3,-1.15735404E-1],"split_indices":[5,2,0,13,9,20,9,0,6,0,0,0,0,0,0],"split_type":[0,0,0,0,0,0,0,0,0,0,0,0,0,0,0],"sum_hessian":[2.283486E2,2.2220079E2,6.1478176E0,1.8625262E2,3.5948166E1,1.6052466E2,2.5727972E1,7.72829E0,2.8219877E1,4.522259E1,1.1530206E2,1.47445545E1,1.09834175E1,2.3128317E1,5.0915604E0],"tree_param":{"num_deleted":"0","num_feature":"24","num_nodes":"15","size_leaf_vector":"1"}},{"base_weights":[-2.8734716E-2,-1.13060705E-1,2.983841E-1,-5.543335E-1,-5.1238686E-2,9.7085464E-1,-1.1514239E-2,3.962153E-2,-8.943786E-1,6.1728388E-2,-4.0338692E-1,3.3800125E-2,1.275452E-1,-3.0244735E-1,7.677098E-2,-3.263464E-2,-1.514758E-1,-4.1760426E-2,1.9989762E-2,-1.1805638E-1,-2.2844806E-2,5.7396647E-2,-5.8499463E-2],"categories":[],"categories_nodes":[],"categories_segments":[],"categories_sizes":[],"default_left":[0,0,0,0,0,0,0,0,0,0,0,0,0,0,0,0,0,0,0,0,0,0,0],"id":16,"left_children":[1,3,5,7,9,11,13,-1,15,17,19,-1,-1,21,-1,-1,-1,-1,-1,-1,-1,-1,-1],"loss_changes":[6.1118717E0,4.770499E0,9.479664E0,7.3085284E0,6.206723E0,2.334032E0,7.5070972E0,0E0,5.197896E0,7.93298E0,4.879755E0,0E0,0E0,6.2995243E0,0E0,0E0,0E0,0E0,0E0,0E0,0E0,0E0,0E0],"parents":[2147483647,0,0,1,1,2,2,3,3,4,4,5,5,6,6,8,8,9,9,10,10,13,13],"right_children":[2,4,6,8,10,12,14,-1,16,18,20,-1,-1,22,-1,-1,-1,-1,-1,-1,-1,-1,-1],"split_conditions":[1.2E1,8.736E1,8.45E1,7.322E1,1.0431E2,9.278E1,8E0,3.962153E-2,6E0,8.665E1,3E0,3.3800125E-2,1.275452E-1,9.003E1,7.677098E-2,-3.263464E-2,-1.514758E-1,-4.1760426E-2,1.9989762E-2,-1.1805638E-1,-2.2844806E-2,5.7396647E-2,-5.8499463E-2],"split_indices":[13,11,8,8,6,10,16,0,16,8,15,0,0,8,0,0,0,0,0,0,0,0,0],"split_type":[0,0,0,0,0,0,0,0,0,0,0,0,0,0,0,0,0,0,0,0,0,0,0],"sum_hessian":[2.1934512E2,1.749104E2,4.443473E1,2.0514627E1,1.5439577E2,1.3344571E1,3.1090157E1,5.361662E0,1.51529665E1,1.1752058E2,3.68752E1,5.0214043E0,8.323167E0,2.3083502E1,8.006655E0,8.706843E0,6.446123E0,2.5843311E1,9.167726E1,5.7191358E0,3.1156061E1,5.3761616E0,1.770734E1],"tree_param":{"num_deleted":"0","num_feature":"24","num_nodes":"23","size_leaf_vector":"1"}},{"base_weights":[2.5934791E-2,9.9036284E-2,-3.6378258E-1,1.9412775E-1,-1.8495765E-1,1.6324356E-1,-7.368557E-1,-2.9881212E-1,3.2890216E-1,-8.026818E-1,2.4029718E-1,-2.537196E-2,7.819148E-2,-1.1912035E0,3.3249907E-2,3.5104275E-2,-6.5527506E-2,2.4012895E-2,9.826472E-2,-2.4409995E-3,-1.2462511E-1,-6.0037423E-2,4.439404E-2,-1.5402465E-1,-8.434256E-2],"categories":[],"categories_nodes":[],"categories_segments":[],"categories_sizes":[],"default_left":[0,0,0,0,0,0,0,0,0,0,0,0,0,0,0,0,0,0,0,0,0,0,0,0,0],"id":17,"left_children":[1,3,5,7,9,11,13,15,17,19,21,-1,-1,23,-1,-1,-1,-1,-1,-1,-1,-1,-1,-1,-1],"loss_changes":[6.4605856E0,5.1852336E0,7.165755E0,9.620849E0,1.2891993E1,4.2408533E0,1.06779785E1,7.4804106E0,6.3240976E0,6.853611E0,5.2999606E0,0E0,0E0,5.3028107E-1,0E0,0E0,0E0,0E0,0E0,0E0,0E0,0E0,0E0,0E0,0E0],"parents":[2147483647,0,0,1,1,2,2,3,3,4,4,5,5,6,6,7,7,8,8,9,9,10,10,13,13],"right_children":[2,4,6,8,10,12,14,16,18,20,22,-1,-1,24,-1,-1,-1,-1,-1,-1,-1,-1,-1,-1,-1],"split_conditions":[1.0837E2,1E0,9.655E1,3E0,9.373E1,9.457E1,1.0693E2,8.331E1,1.1546E2,7.998E1,8.578E1,-2.537196E-2,7.819148E-2,1.0039E2,3.3249907E-2,3.5104275E-2,-6.5527506E-2,2.4012895E-2,9.826472E-2,-2.4409995E-3,-1.2462511E-1,-6.0037423E-2,4.439404E-2,-1.5402465E-1,-8.434256E-2],"split_indices":[6,17,11,16,11,11,11,6,8,8,6,0,0,11,0,0,0,0,0,0,0,0,0,0,0],"split_type":[0,0,0,0,0,0,0,0,0,0,0,0,0,0,0,0,0,0,0,0,0,0,0,0,0],"sum_hessian":[2.2451074E2,1.896777E2,3.4833042E1,1.4233516E2,4.7342537E1,1.4670715E1,2.0162325E1,3.0298973E1,1.1203619E2,1.8941145E1,2.8401392E1,9.116442E0,5.554273E0,1.407022E1,6.092105E0,1.073804E1,1.9560934E1,9.984532E1,1.21908655E1,7.259283E0,1.1681862E1,5.1584253E0,2.3242966E1,5.311039E0,8.759181E0],"tree_param":{"num_deleted":"0","num_feature":"24","num_nodes":"25","size_leaf_vector":"1"}},{"base_weights":[-5.681769E-3,6.581103E-2,-3.2550666E-1,2.1121106E-1,-1.5255097E-1,-7.759238E-1,3.697794E-1,-5.606507E-1,3.0143648E-1,-4.6657288E-1,1.471636E-1,-1.0684155E0,3.0476598E-2,-6.281636E-3,9.7381026E-2,1.486167E-3,-9.9028565E-2,5.442622E-2,1.2918473E-3,-6.540733E-2,4.8987556E-2,-3.5124537E-2,4.4966117E-2,-2.3729077E-2,-1.4827353E-1],"categories":[],"categories_nodes":[],"categories_segments":[],"categories_sizes":[],"default_left":[0,0,0,0,0,0,0,0,0,0,0,0,0,0,0,0,0,0,0,0,0,0,0,0,0],"id":18,"left_children":[1,3,5,7,9,11,13,15,17,19,21,23,-1,-1,-1,-1,-1,-1,-1,-1,-1,-1,-1,-1,-1],"loss_changes":[5.2147403E0,5.952421E0,1.3334751E1,7.9933324E0,7.1380215E0,8.419827E0,4.5181394E0,3.0086143E0,7.0860233E0,6.941537E0,6.066817E0,6.664194E0,0E0,0E0,0E0,0E0,0E0,0E0,0E0,0E0,0E0,0E0,0E0,0E0,0E0],"parents":[2147483647,0,0,1,1,2,2,3,3,4,4,5,5,6,6,7,7,8,8,9,9,10,10,11,11],"right_children":[2,4,6,8,10,12,14,16,18,20,22,24,-1,-1,-1,-1,-1,-1,-1,-1,-1,-1,-1,-1,-1],"split_conditions":[1.0059E2,9.444E1,1.0851E2,7.593E1,9.17E1,1.0693E2,1.1424E2,8.666E1,1E0,1E0,8.745E1,9.948E1,3.0476598E-2,-6.281636E-3,9.7381026E-2,1.486167E-3,-9.9028565E-2,5.442622E-2,1.2918473E-3,-6.540733E-2,4.8987556E-2,-3.5124537E-2,4.4966117E-2,-2.3729077E-2,-1.4827353E-1],"split_indices":[11,10,10,8,6,11,9,11,5,3,8,9,0,0,0,0,0,0,0,0,0,0,0,0,0],"split_type":[0,0,0,0,0,0,0,0,0,0,0,0,0,0,0,0,0,0,0,0,0,0,0,0,0],"sum_hessian":[2.2612787E2,1.8546397E2,4.0663895E1,1.1135146E2,7.41125E1,2.460707E1,1.6056824E1,1.1108283E1,1.0024318E2,3.592053E1,3.8191975E1,1.9374632E1,5.23244E0,9.878225E0,6.178598E0,5.1607156E0,5.947567E0,5.3950428E1,4.6292755E1,3.0297255E1,5.6232743E0,1.4364013E1,2.3827963E1,6.9685187E0,1.2406113E1],"tree_param":{"num_deleted":"0","num_feature":"24","num_nodes":"25","size_leaf_vector":"1"}},{"base_weights":[1.8910108E-2,9.229503E-2,-4.932355E-1,-4.8909697E-1,1.5039262E-1,2.8507173E-1,-1.0893472E0,6.4149015E-2,-9.760986E-1,-4.245914E-2,2.87301E-1,-2.8901985E-2,9.7872406E-2,-1.5638886E-1,-6.928198E-2,-1.4592342E-1,-2.882134E-2,1.2977411E-2,-6.8372674E-2,1.5995704E-2,6.68391E-2],"categories":[],"categories_nodes":[],"categories_segments":[],"categories_sizes":[],"default_left":[0,0,0,0,0,0,0,0,0,0,0,0,0,0,0,0,0,0,0,0,0],"id":19,"left_children":[1,3,5,7,9,11,13,-1,15,17,19,-1,-1,-1,-1,-1,-1,-1,-1,-1,-1],"loss_changes":[8.396655E0,6.6667295E0,1.3304226E1,1.0519615E1,4.7178974E0,5.435596E0,1.9397678E0,0E0,3.8850546E0,8.357528E0,4.9576054E0,0E0,0E0,0E0,0E0,0E0,0E0,0E0,0E0,0E0,0E0],"parents":[2147483647,0,0,1,1,2,2,3,3,4,4,5,5,6,6,8,8,9,9,10,10],"right_children":[2,4,6,8,10,12,14,-1,16,18,20,-1,-1,-1,-1,-1,-1,-1,-1,-1,-1],"split_conditions":[2E0,7.614E1,8.939E1,8.019E1,5E0,8.486E1,9.528E1,6.4149015E-2,9.933E1,1.0059E2,1.0471E2,-2.8901985E-2,9.7872406E-2,-1.5638886E-1,-6.928198E-2,-1.4592342E-1,-2.882134E-2,1.2977411E-2,-6.8372674E-2,1.5995704E-2,6.68391E-2],"split_indices":[19,7,7,9,16,7,11,0,9,11,10,0,0,0,0,0,0,0,0,0,0],"split_type":[0,0,0,0,0,0,0,0,0,0,0,0,0,0,0,0,0,0,0,0,0],"sum_hessian":[2.2120052E2,1.9419435E2,2.700616E1,1.6968573E1,1.7722578E2,1.1939393E1,1.5066767E1,5.013162E0,1.1955411E1,7.386625E1,1.03359535E2,6.851873E0,5.08752E0,5.518538E0,9.548229E0,6.364192E0,5.5912194E0,5.8856148E1,1.5010102E1,7.853592E1,2.4823612E1],"tree_param":{"num_deleted":"0","num_feature":"24","num_nodes":"21","size_leaf_vector":"1"}},{"base_weights":[9.370184E-2,6.706317E-2,9.564878E-2,9.9869065E-2,-6.622797E-2,4.4934812E-1,1.981728E-2,2.366179E-2,9.8307036E-2,9.8300055E-3,-3.4339596E-2],"categories":[],"categories_nodes":[],"categories_segments":[],"categories_sizes":[],"default_left":[0,0,0,0,0,0,0,0,0,0,0],"id":20,"left_children":[1,3,-1,5,-1,7,9,-1,-1,-1,-1],"loss_changes":[5.2956557E0,5.504531E0,0E0,6.100548E0,0E0,4.3831005E0,5.1285014E0,0E0,0E0,0E0,0E0],"parents":[2147483647,0,0,1,1,3,3,5,5,6,6],"right_children":[2,4,-1,6,-1,8,10,-1,-1,-1,-1],"split_conditions":[1.2339E2,2E0,9.564878E-2,7.992E1,-6.622797E-2,2E0,8E0,2.366179E-2,9.8307036E-2,9.8300055E-3,-3.4339596E-2],"split_indices":[10,18,0,9,0,5,16,0,0,0,0],"split_type":[0,0,0,0,0,0,0,0,0,0,0],"sum_hessian":[2.3220242E2,2.262933E2,5.9091177E0,2.1737866E2,8.9146385E0,3.9653156E1,1.7772551E2,2.9384474E1,1.0268685E1,1.4674611E2,3.0979403E1],"tree_param":{"num_deleted":"0","num_feature":"24","num_nodes":"11","size_leaf_vector":"1"}},{"base_weights":[7.305761E-2,3.2863438E-1,-6.341774E-2,-6.631191E-2,4.394122E-1,-3.1346554E-1,1.291113E-1,7.3601043E-1,-2.321884E-2,2.2217491E-1,-5.376908E-1,-6.098816E-2,3.4686115E-1,3.132123E-2,1.0407288E-1,2.1129731E-2,-8.0876485E-2,5.7478692E-2,-4.3988638E-2,8.8005215E-3,-7.258775E-2,2.9146943E-2,-9.016862E-2,-4.844504E-2,5.5854052E-2],"categories":[],"categories_nodes":[],"categories_segments":[],"categories_sizes":[],"default_left":[0,0,0,0,0,0,0,0,0,0,0,0,0,0,0,0,0,0,0,0,0,0,0,0,0],"id":21,"left_children":[1,3,5,-1,7,9,11,13,15,17,19,21,23,-1,-1,-1,-1,-1,-1,-1,-1,-1,-1,-1,-1],"loss_changes":[8.119173E0,9.1886215E0,7.367291E0,0E0,1.0095354E1,8.106229E0,3.6098115E0,5.4439907E0,5.6354218E0,4.9989886E0,5.617837E0,1.4229891E1,7.407671E0,0E0,0E0,0E0,0E0,0E0,0E0,0E0,0E0,0E0,0E0,0E0,0E0],"parents":[2147483647,0,0,1,1,2,2,4,4,5,5,6,6,7,7,8,8,9,9,10,10,11,11,12,12],"right_children":[2,4,6,-1,8,10,12,14,16,18,20,22,24,-1,-1,-1,-1,-1,-1,-1,-1,-1,-1,-1,-1],"split_conditions":[8.723E1,7.701E1,9.525E1,-6.631191E-2,1.0153E2,8.865E1,6E0,7.888E1,1E0,9.64E1,7.736E1,1E1,9.728E1,3.132123E-2,1.0407288E-1,2.1129731E-2,-8.0876485E-2,5.7478692E-2,-4.3988638E-2,8.8005215E-3,-7.258775E-2,2.9146943E-2,-9.016862E-2,-4.844504E-2,5.5854052E-2],"split_indices":[10,7,11,0,7,11,14,10,17,10,8,13,11,0,0,0,0,0,0,0,0,0,0,0,0],"split_type":[0,0,0,0,0,0,0,0,0,0,0,0,0,0,0,0,0,0,0,0,0,0,0,0,0],"sum_hessian":[2.3117743E2,7.998391E1,1.5119353E2,7.5354786E0,7.2448425E1,6.54987E1,8.569483E1,4.378587E1,2.866256E1,1.9330406E1,4.6168293E1,4.6136642E1,3.9558186E1,1.9188967E1,2.4596903E1,2.2635883E1,6.0266767E0,1.2698854E1,6.6315517E0,1.0798164E1,3.537013E1,3.2968216E1,1.3168426E1,7.766973E0,3.1791214E1],"tree_param":{"num_deleted":"0","num_feature":"24","num_nodes":"25","size_leaf_vector":"1"}},{"base_weights":[-2.0982739E-2,2.4330853E-2,-5.1203185E-1,-3.1049088E-1,8.052005E-2,-9.592753E-1,2.197724E-2,5.182107E-3,-1.0699107E-1,6.4518374E-1,-5.6855194E-3,-1.4272688E-1,-3.5944637E-2,4.7253434E-2,-4.4787373E-2,-1.1835804E-3,1.01381026E-1,-1.5236099E-2,2.4161266E-2],"categories":[],"categories_nodes":[],"categories_segments":[],"categories_sizes":[],"default_left":[0,0,0,0,0,0,0,0,0,0,0,0,0,0,0,0,0,0,0],"id":22,"left_children":[1,3,5,7,9,11,-1,13,-1,15,17,-1,-1,-1,-1,-1,-1,-1,-1],"loss_changes":[4.9228864E0,3.8439677E0,6.3277044E0,7.0478973E0,8.50347E0,2.79558E0,0E0,4.816053E0,0E0,5.6154327E0,5.5676484E0,0E0,0E0,0E0,0E0,0E0,0E0,0E0,0E0],"parents":[2147483647,0,0,1,1,2,2,3,3,4,4,5,5,7,7,9,9,10,10],"right_children":[2,4,6,8,10,12,-1,14,-1,16,18,-1,-1,-1,-1,-1,-1,-1,-1],"split_conditions":[1.1462E2,7.942E1,1.2144E2,7E0,8.518E1,8E0,2.197724E-2,9.357E1,-1.0699107E-1,5E0,9.839E1,-1.4272688E-1,-3.5944637E-2,4.7253434E-2,-4.4787373E-2,-1.1835804E-3,1.01381026E-1,-1.5236099E-2,2.4161266E-2],"split_indices":[6,10,6,16,10,13,0,8,0,14,6,0,0,0,0,0,0,0,0],"split_type":[0,0,0,0,0,0,0,0,0,0,0,0,0,0,0,0,0,0,0],"sum_hessian":[2.1968149E2,2.0199226E2,1.768922E1,2.8376396E1,1.7361586E2,1.0786312E1,6.9029093E0,2.0745962E1,7.630434E0,2.2136053E1,1.5147981E2,5.284121E0,5.502191E0,1.0190699E1,1.05552635E1,8.303769E0,1.3832284E1,9.53252E1,5.615461E1],"tree_param":{"num_deleted":"0","num_feature":"24","num_nodes":"19","size_leaf_vector":"1"}},{"base_weights":[-1.4225794E-2,-4.2675268E-2,8.7891564E-2,-7.530683E-3,-1.0776935E-1,8.761733E-2,-3.0163854E-1,4.2002923E-3,9.6700594E-2,-1.3682223E-2,-1.1378568E-1],"categories":[],"categories_nodes":[],"categories_segments":[],"categories_sizes":[],"default_left":[0,0,0,0,0,0,0,0,0,0,0],"id":23,"left_children":[1,3,-1,5,-1,7,9,-1,-1,-1,-1],"loss_changes":[5.824317E0,8.055053E0,0E0,6.0539536E0,0E0,6.518569E0,7.131667E0,0E0,0E0,0E0,0E0],"parents":[2147483647,0,0,1,1,3,3,5,5,6,6],"right_children":[2,4,-1,6,-1,8,10,-1,-1,-1,-1],"split_conditions":[1.0821E2,2E0,8.7891564E-2,1.0534E2,-1.0776935E-1,2E0,1E0,4.2002923E-3,9.6700594E-2,-1.3682223E-2,-1.1378568E-1],"split_indices":[11,18,0,9,0,17,2,0,0,0,0],"split_type":[0,0,0,0,0,0,0,0,0,0,0],"sum_hessian":[2.2674281E2,2.2066609E2,6.076718E0,2.1439352E2,6.272568E0,1.6251859E2,5.1874943E1,1.5550044E2,7.0181365E0,4.4305977E1,7.568968E0],"tree_param":{"num_deleted":"0","num_feature":"24","num_nodes":"11","size_leaf_vector":"1"}}]},"name":"gbtree"},"learner_model_param":{"base_score":"[5E-1]","boost_from_average":"1","num_class":"0","num_feature":"24","num_target":"1"},"objective":{"name":"binary:logistic","reg_loss_param":{"scale_pos_weight":"2.77358484"}}},"version":[3,1,2]}